<?xml version="1.0" encoding="ISO-8859-1"?>
<!-- This network was created in GeNIe Academic, which can be used for educational and research purposes only -->
<smile version="1.0" id="Unnamed" numsamples="10000" discsamples="10000">
	<nodes>
		<cpt id="OA_MAIS">
			<state id="State1" />
			<state id="State2" />
			<state id="State3" />
			<state id="State4" />
			<probabilities>0.8462687672856578 0.07626679178190438 0.06238887791386803 0.01507556301856973</probabilities>
		</cpt>
		<cpt id="GV_CURBWGT">
			<state id="State1" />
			<state id="State2" />
			<state id="State3" />
			<state id="State4" />
			<state id="State5" />
			<parents>OA_MAIS</parents>
			<probabilities>0.0003034547152194211 0.2895774976657329 0.5472805788982259 0.1394257703081232 0.02341269841269841 0.0001294498381877023 0.3172815533980582 0.5341100323624595 0.1276375404530744 0.02084142394822006 0.0009493670886075948 0.3300632911392404 0.5444620253164556 0.105379746835443 0.01914556962025316 0.0006535947712418302 0.3633986928104576 0.5594771241830065 0.05620915032679739 0.02026143790849674</probabilities>
		</cpt>
		<cpt id="GV_WGTCDTR">
			<state id="State1" />
			<state id="State2" />
			<state id="State3" />
			<parents>GV_CURBWGT OA_MAIS</parents>
			<probabilities>0.5555555555555556 0.3888888888888889 0.05555555555555555 0.3333333333333333 0.3333333333333333 0.3333333333333333 0.6666666666666667 0.1666666666666667 0.1666666666666667 0.3333333333333333 0.3333333333333333 0.3333333333333333 0.9573510645442945 0.04217878971052456 0.0004701457451810062 0.9517990495587237 0.04752206381534284 0.0006788866259334692 0.9529505582137162 0.04625199362041468 0.0007974481658692186 0.9136904761904763 0.08333333333333336 0.002976190476190476 0.6034047695205601 0.3711838504460319 0.02541138003340797 0.5863599677158999 0.3962873284907183 0.01735270379338176 0.6173197871311079 0.3560716013546202 0.02660861151427189 0.6763565891472868 0.2868217054263566 0.03682170542635659 0.02064156206415621 0.3143654114365411 0.6649930264993026 0.01683501683501684 0.2744107744107744 0.7087542087542089 0.03233830845771144 0.263681592039801 0.7039800995024875 0.07407407407407407 0.3518518518518518 0.5740740740740741 0.02321724709784411 0.04311774461028192 0.9336650082918739 0.0404040404040404 0.0404040404040404 0.9191919191919192 0.05333333333333333 0.05333333333333333 0.8933333333333333 0.04761904761904762 0.3333333333333333 0.619047619047619</probabilities>
		</cpt>
		<cpt id="GV_ENERGY">
			<state id="State1" />
			<state id="State2" />
			<state id="State3" />
			<state id="State4" />
			<parents>GV_WGTCDTR OA_MAIS</parents>
			<probabilities>0.8674799465240641 0.1058298319327731 0.01788101604278075 0.008809205500381971 0.6801778242677824 0.2136506276150627 0.06511506276150628 0.04105648535564854 0.4822289156626506 0.2725903614457831 0.130421686746988 0.1147590361445783 0.4193181818181818 0.2102272727272727 0.1102272727272727 0.2602272727272727 0.8261040125532392 0.1309683927370545 0.0309908092355974 0.01193678547410894 0.6262315270935961 0.2050492610837439 0.104064039408867 0.06465517241379311 0.4493355481727575 0.2632890365448505 0.117109634551495 0.170265780730897 0.5261194029850746 0.1529850746268657 0.1231343283582089 0.1977611940298507 0.7447845804988662 0.1797052154195011 0.04954648526077098 0.02596371882086168 0.568918918918919 0.2391891891891892 0.08243243243243244 0.1094594594594595 0.4018518518518518 0.2314814814814815 0.1425925925925926 0.2240740740740741 0.3928571428571428 0.2976190476190476 0.1071428571428571 0.2023809523809524</probabilities>
		</cpt>
		<cpt id="GV_DVLONG">
			<state id="State1" />
			<state id="State2" />
			<state id="State3" />
			<state id="State4" />
			<parents>GV_ENERGY OA_MAIS</parents>
			<probabilities>0.1029870940882598 0.7870698029419928 0.09577088537330003 0.01417221759644741 0.2032178217821782 0.7467821782178218 0.03886138613861386 0.01113861386138614 0.2902542372881356 0.6529661016949152 0.04957627118644067 0.007203389830508475 0.3474264705882353 0.5827205882352942 0.05330882352941176 0.01654411764705882 0.4362134992819531 0.4094064145524174 0.03697941598851125 0.1174006701771182 0.5911144578313253 0.3591867469879518 0.02183734939759036 0.02786144578313253 0.591246290801187 0.3746290801186944 0.021513353115727 0.01261127596439169 0.4484126984126984 0.4166666666666666 0.06746031746031746 0.06746031746031746 0.5775862068965517 0.2626436781609195 0.02126436781609195 0.1385057471264368 0.7104166666666667 0.1854166666666667 0.01041666666666667 0.09375 0.6702453987730062 0.2407975460122699 0.04447852760736196 0.04447852760736196 0.5214285714285715 0.3214285714285714 0.09285714285714286 0.06428571428571428 0.666256157635468 0.1588669950738916 0.03571428571428571 0.1391625615763547 0.6540697674418604 0.1308139534883721 0.07267441860465117 0.1424418604651163 0.8036723163841808 0.1426553672316384 0.02401129943502825 0.02966101694915254 0.67 0.1766666666666667 0.11 0.04333333333333333</probabilities>
		</cpt>
		<cpt id="VE_GAD1">
			<state id="State1" />
			<state id="State2" />
			<state id="State3" />
			<state id="State4" />
			<parents>GV_DVLONG OA_MAIS</parents>
			<probabilities>0.06083752695902229 0.06011861969805896 0.860981308411215 0.01806254493170381 0.05202578268876611 0.05386740331491713 0.8881215469613259 0.005985267034990792 0.1161575562700965 0.05184887459807074 0.82516077170418 0.006832797427652733 0.1753472222222222 0.1059027777777778 0.703125 0.015625 0.161543134872418 0.1645402997164844 0.6038274605103281 0.07008910490076954 0.2560639470782801 0.1513230429988975 0.564773980154355 0.02783902976846747 0.4223090277777777 0.1671006944444444 0.3980034722222222 0.01258680555555555 0.4326923076923077 0.2557692307692308 0.2788461538461539 0.03269230769230769 0.1772388059701492 0.1236431478968792 0.04223202170963365 0.6568860244233378 0.2268518518518518 0.2268518518518518 0.06018518518518518 0.4861111111111111 0.484375 0.296875 0.005208333333333333 0.2135416666666667 0.358695652173913 0.4456521739130435 0.0108695652173913 0.1847826086956522 0.03392193308550186 0.03020446096654275 0.009758364312267658 0.9261152416356877 0.02840909090909091 0.09659090909090909 0.005681818181818182 0.8693181818181819 0.1071428571428571 0.05952380952380952 0.05952380952380952 0.7738095238095237 0.1041666666666667 0.02083333333333333 0.02083333333333333 0.8541666666666666</probabilities>
		</cpt>
		<cpt id="GV_DVLAT">
			<state id="State1" />
			<state id="State2" />
			<state id="State3" />
			<state id="State4" />
			<parents>VE_GAD1 OA_MAIS</parents>
			<probabilities>0.000511665984445354 0.05536225951698731 0.7995292672943103 0.144596807204257 0.0009124087591240876 0.02645985401459854 0.6286496350364963 0.343978102189781 0.0007331378299120235 0.03885630498533724 0.4318181818181818 0.5285923753665689 0.002747252747252747 0.03571428571428572 0.3543956043956044 0.6071428571428572 0.1890905298289529 0.6484146850229453 0.1623904881101377 0.0001042970379641218 0.4112021857923497 0.4603825136612022 0.1270491803278689 0.001366120218579235 0.5989583333333333 0.2864583333333333 0.1128472222222222 0.001736111111111111 0.7330508474576272 0.1228813559322034 0.1398305084745763 0.00423728813559322 0.0074871432893012 0.302132701421801 0.6819854794796814 0.008394675809216497 0.01728456913827655 0.2918336673346693 0.6756012024048096 0.01528056112224449 0.01915322580645161 0.2301747311827957 0.7180779569892474 0.03259408602150538 0.07427536231884058 0.197463768115942 0.7047101449275363 0.02355072463768116 0.004303106633081444 0.1961586901763224 0.7977539882451721 0.001784214945424013 0.002688172043010753 0.1854838709677419 0.8091397849462366 0.002688172043010753 0.006578947368421052 0.1907894736842105 0.7960526315789473 0.006578947368421052 0.0119047619047619 0.4404761904761905 0.5357142857142857 0.0119047619047619</probabilities>
		</cpt>
		<cpt id="GV_SPLIMIT">
			<state id="State1" />
			<state id="State2" />
			<state id="State3" />
			<state id="State4" />
			<parents>VE_GAD1 OA_MAIS</parents>
			<probabilities>0.1847114203847728 0.5052189930413427 0.2686246418338109 0.04144494474007368 0.1505474452554744 0.4972627737226277 0.2965328467153285 0.05565693430656934 0.1209677419354839 0.4523460410557185 0.3731671554252199 0.05351906158357771 0.1126373626373626 0.4972527472527473 0.3214285714285715 0.06868131868131869 0.1148310387984981 0.527430120984564 0.3230079265748853 0.03473091364205257 0.09972677595628415 0.4658469945355191 0.4057377049180328 0.02868852459016394 0.078125 0.4253472222222222 0.4392361111111111 0.05729166666666666 0.05508474576271186 0.461864406779661 0.461864406779661 0.0211864406779661 0.08613996168196028 0.4958404759503883 0.3565846526167188 0.06143490975093274 0.06137274549098196 0.4431362725450901 0.4130761523046092 0.08241482965931864 0.04200268817204302 0.3672715053763441 0.4828629032258065 0.1078629032258065 0.01630434782608696 0.2989130434782609 0.5597826086956522 0.125 0.06895465994962216 0.429575986565911 0.3724811083123425 0.1289882451721243 0.05645161290322581 0.3145161290322581 0.4112903225806452 0.217741935483871 0.03289473684210526 0.2434210526315789 0.4013157894736842 0.3223684210526316 0.0119047619047619 0.1547619047619048 0.4404761904761905 0.3928571428571428</probabilities>
		</cpt>
		<cpt id="GV_LANES">
			<state id="State1" />
			<state id="State2" />
			<state id="State3" />
			<parents>GV_SPLIMIT OA_MAIS</parents>
			<probabilities>0.756064947468959 0.2007640878701051 0.04317096466093601 0.7089947089947091 0.2486772486772487 0.04232804232804233 0.8274509803921569 0.1333333333333334 0.03921568627450981 0.8958333333333334 0.08333333333333333 0.02083333333333333 0.3528064146620848 0.4131216178852155 0.2340719674526998 0.3915343915343915 0.4001924001924002 0.2082732082732083 0.3821954484605087 0.394243641231593 0.2235609103078982 0.4558404558404559 0.3960113960113961 0.1481481481481481 0.3551987245188475 0.4090080856394488 0.2357931898417037 0.4427942794279427 0.3470847084708471 0.2101210121012101 0.5262536873156342 0.3138643067846608 0.159882005899705 0.5058275058275058 0.400932400932401 0.09324009324009325 0.2873145625189222 0.4780502573418105 0.2346351801392673 0.3604336043360434 0.5311653116531165 0.1084010840108401 0.4061624649859944 0.4481792717086835 0.1456582633053221 0.4040404040404041 0.4343434343434344 0.1616161616161616</probabilities>
		</cpt>
		<cpt id="GV_MODELYR">
			<state id="State1" />
			<state id="State2" />
			<state id="State3" />
			<state id="State4" />
			<state id="State5" />
			<parents>GV_CURBWGT OA_MAIS</parents>
			<probabilities>0.2 0.3666666666666666 0.2 0.2 0.03333333333333333 0.2 0.2 0.2 0.2 0.2 0.6000000000000001 0.1 0.1 0.1 0.1 0.2 0.2 0.2 0.2 0.2 0.3419705823090873 0.2563368930082611 0.16969574853919 0.1316139431795285 0.1003828329639331 0.3995926680244399 0.2468431771894094 0.124643584521385 0.124643584521385 0.1042769857433809 0.3784688995215311 0.2779904306220096 0.1966507177033493 0.08899521531100481 0.05789473684210527 0.4035714285714286 0.2160714285714286 0.1625 0.1357142857142857 0.08214285714285713 0.2529267512527988 0.2588975370508583 0.206439918967907 0.1616590254824608 0.120076767245975 0.2532687651331719 0.3016949152542373 0.1769975786924939 0.1648910411622276 0.1031476997578693 0.3224963715529753 0.2876632801161103 0.1918722786647315 0.1294629898403483 0.06850507982583455 0.2744186046511628 0.3383720930232558 0.2395348837209302 0.1058139534883721 0.04186046511627907 0.1954811715481171 0.2444351464435147 0.277907949790795 0.179163179916318 0.1030125523012552 0.293939393939394 0.2686868686868688 0.2181818181818182 0.1272727272727273 0.09191919191919193 0.217910447761194 0.3074626865671642 0.2253731343283582 0.1955223880597015 0.05373134328358209 0.2333333333333333 0.2888888888888889 0.1777777777777778 0.2333333333333333 0.06666666666666667 0.1721393034825871 0.3039800995024876 0.2741293532338309 0.1248756218905473 0.1248756218905473 0.2484848484848485 0.2484848484848485 0.2787878787878788 0.1575757575757576 0.06666666666666668 0.168 0.328 0.328 0.08800000000000002 0.08800000000000002 0.6 0.02857142857142857 0.3142857142857143 0.02857142857142857 0.02857142857142857</probabilities>
		</cpt>
		<cpt id="GV_OTVEHWGT">
			<state id="State1" />
			<state id="State2" />
			<state id="State3" />
			<state id="State4" />
			<parents>GV_DVLAT OA_MAIS</parents>
			<probabilities>0.004174397031539889 0.3418367346938775 0.4401669758812616 0.213821892393321 0.01344086021505377 0.2607526881720431 0.4435483870967742 0.2822580645161291 0.01237623762376238 0.1608910891089109 0.4777227722772277 0.349009900990099 0.004629629629629629 0.1342592592592592 0.4861111111111111 0.375 0.01111003299049098 0.4343586260430817 0.4238792936153697 0.1306520473510576 0.003125 0.418125 0.450625 0.128125 0.009656652360515022 0.3143776824034335 0.4603004291845493 0.2156652360515021 0.005319148936170213 0.2393617021276596 0.5585106382978723 0.1968085106382979 0.009653825186262038 0.4089814646556424 0.4318780665091768 0.1494866436489188 0.006613756613756614 0.3907407407407408 0.4298941798941799 0.1727513227513228 0.008585164835164836 0.3245192307692308 0.4824862637362638 0.1844093406593407 0.001677852348993289 0.2634228187919463 0.552013422818792 0.1828859060402684 0.00963718820861678 0.3633786848072563 0.4790249433106576 0.1479591836734694 0.02954545454545454 0.1568181818181818 0.4204545454545454 0.3931818181818182 0.001219512195121951 0.2695121951219512 0.5182926829268293 0.2109756097560976 0.00423728813559322 0.2076271186440678 0.4957627118644068 0.2923728813559322</probabilities>
		</cpt>
		<cpt id="OA_AGE">
			<state id="State1" />
			<state id="State2" />
			<state id="State3" />
			<state id="State4" />
			<state id="State5" />
			<parents>GV_CURBWGT OA_MAIS</parents>
			<probabilities>0.03333333333333333 0.2 0.2 0.03333333333333333 0.5333333333333333 0.2 0.2 0.2 0.2 0.2 0.1 0.1 0.6000000000000001 0.1 0.1 0.2 0.2 0.2 0.2 0.2 0.3451944388474713 0.2317549869030828 0.2043522063268185 0.1074350191416482 0.1112633487809793 0.2957230142566192 0.2040733197556008 0.234623217922607 0.1042769857433809 0.1613034623217923 0.2492822966507177 0.2133971291866029 0.2110047846889952 0.1464114832535885 0.1799043062200957 0.2339285714285714 0.1714285714285714 0.2339285714285714 0.1714285714285714 0.1892857142857143 0.1992963002452287 0.2179550058641646 0.2791555602942744 0.1402281693144258 0.1633649642819064 0.1576271186440678 0.2193704600484261 0.2230024213075061 0.1709443099273608 0.2290556900726392 0.162844702467344 0.1831640058055153 0.2310595065312046 0.1599419448476052 0.2629898403483309 0.1813953488372093 0.1232558139534884 0.2162790697674419 0.1465116279069767 0.3325581395348837 0.1389958158995816 0.2230962343096234 0.3917154811715481 0.1377405857740586 0.1084518828451883 0.1272727272727273 0.2080808080808081 0.4050505050505051 0.1272727272727273 0.1323232323232323 0.1432835820895522 0.1507462686567164 0.3746268656716418 0.1731343283582089 0.1582089552238806 0.01111111111111111 0.1777777777777778 0.3444444444444444 0.2888888888888889 0.1777777777777778 0.1671641791044776 0.2044776119402985 0.391044776119403 0.1497512437810946 0.08756218905472639 0.006060606060606061 0.2484848484848485 0.5212121212121212 0.1575757575757576 0.06666666666666668 0.08800000000000002 0.128 0.368 0.2480000000000001 0.168 0.02857142857142857 0.3142857142857143 0.4571428571428571 0.1714285714285714 0.02857142857142857</probabilities>
		</cpt>
		<cpt id="OA_BAGDEPLY">
			<state id="State0" />
			<state id="State1" />
			<parents>VE_GAD1 OA_MAIS</parents>
			<probabilities>0.8119115841178879 0.1880884158821121 0.6587591240875912 0.3412408759124088 0.5674486803519062 0.4325513196480938 0.4120879120879121 0.5879120879120879 0.7536503963287442 0.2463496036712557 0.4562841530054645 0.5437158469945356 0.4826388888888888 0.517361111111111 0.4661016949152542 0.5338983050847458 0.387365130583846 0.6126348694161541 0.1427855711422845 0.8572144288577154 0.05443548387096775 0.9455645161290324 0.01811594202898551 0.9818840579710145 0.8990344248530646 0.1009655751469353 0.7365591397849462 0.2634408602150538 0.6710526315789473 0.3289473684210526 0.8333333333333333 0.1666666666666667</probabilities>
		</cpt>
		<cpt id="OA_MANUSE">
			<state id="State0" />
			<state id="State1" />
			<parents>OA_BAGDEPLY OA_MAIS</parents>
			<probabilities>0.06564674580433892 0.9343532541956611 0.1635021097046413 0.8364978902953586 0.2393292682926829 0.7606707317073171 0.2916666666666666 0.7083333333333333 0.1291921249151392 0.8708078750848609 0.2019589552238806 0.7980410447761194 0.2780149413020278 0.7219850586979722 0.3968609865470852 0.6031390134529148</probabilities>
		</cpt>
		<cpt id="OA_SEX">
			<state id="State1" />
			<state id="State2" />
			<parents>GV_WGTCDTR OA_MAIS</parents>
			<probabilities>0.4575534759358288 0.5424465240641712 0.4408995815899581 0.5591004184100418 0.4885542168674699 0.5114457831325302 0.5659090909090909 0.4340909090909091 0.4728760367630576 0.5271239632369423 0.4913793103448276 0.5086206896551724 0.4933554817275748 0.5066445182724253 0.6940298507462687 0.3059701492537313 0.7244897959183674 0.2755102040816327 0.6891891891891893 0.3108108108108109 0.6777777777777778 0.3222222222222222 0.8333333333333333 0.1666666666666667</probabilities>
		</cpt>
		<cpt id="VE_PDOF_TR">
			<state id="State1" />
			<state id="State2" />
			<state id="State3" />
			<state id="State4" />
			<state id="State5" />
			<state id="State6" />
			<parents>VE_GAD1 OA_MAIS</parents>
			<probabilities>0.02135352708418611 0.01480420248328558 0.0315868467730932 0.03772683858643744 0.1265520534861509 0.7679765315868468 0.01155717761557178 0.02615571776155718 0.01155717761557178 0.04075425790754258 0.1319951338199513 0.7779805352798053 0.009286412512218963 0.01808406647116325 0.02394916911045943 0.05327468230694037 0.1559139784946237 0.7394916911045943 0.0347985347985348 0.02380952380952381 0.04578754578754579 0.07875457875457877 0.1117216117216117 0.7051282051282053 6.953135864274787e-05 6.953135864274787e-05 6.953135864274787e-05 6.953135864274787e-05 0.0004867195104992352 0.9992351550549297 0.0009107468123861566 0.0009107468123861566 0.0009107468123861566 0.0009107468123861566 0.0009107468123861566 0.9954462659380692 0.001157407407407407 0.001157407407407407 0.001157407407407407 0.001157407407407407 0.001157407407407407 0.9942129629629628 0.002824858757062147 0.002824858757062147 0.002824858757062147 0.002824858757062147 0.002824858757062147 0.9858757062146892 1.68061577762092e-05 1.68061577762092e-05 1.68061577762092e-05 0.0004201539444052301 0.003949447077409162 0.995579980504857 0.000167000668002672 0.000167000668002672 0.000167000668002672 0.000167000668002672 0.001169004676018704 0.9981629926519705 0.0002240143369175627 0.0002240143369175627 0.0002240143369175627 0.0002240143369175627 0.004256272401433692 0.994847670250896 0.001207729468599034 0.001207729468599034 0.001207729468599034 0.001207729468599034 0.001207729468599034 0.9939613526570048 0.0009095997760985166 6.996921354603973e-05 6.996921354603973e-05 0.0009095997760985166 0.001329415057374755 0.996711446963336 0.001792114695340502 0.001792114695340502 0.001792114695340502 0.001792114695340502 0.001792114695340502 0.9910394265232976 0.004385964912280702 0.004385964912280702 0.004385964912280702 0.004385964912280702 0.004385964912280702 0.9780701754385964 0.007936507936507936 0.007936507936507936 0.007936507936507936 0.007936507936507936 0.007936507936507936 0.9603174603174603</probabilities>
		</cpt>
	</nodes>
	<extensions>
		<genie version="1.0" app="GeNIe 2.2.2414.0 ACADEMIC" name="DATA" faultnameformat="nodestate">
			<node id="GV_CURBWGT">
				<name>GV_CURBWGT</name>
				<interior color="e5f6f7" />
				<outline color="000080" />
				<font color="000000" name="Arial" size="8" />
				<position>435 157 507 205</position>
			</node>
			<node id="GV_DVLAT">
				<name>GV_DVLAT</name>
				<interior color="e5f6f7" />
				<outline color="000080" />
				<font color="000000" name="Arial" size="8" />
				<position>417 211 489 259</position>
			</node>
			<node id="GV_DVLONG">
				<name>GV_DVLONG</name>
				<interior color="e5f6f7" />
				<outline color="000080" />
				<font color="000000" name="Arial" size="8" />
				<position>368 257 440 305</position>
			</node>
			<node id="GV_ENERGY">
				<name>GV_ENERGY</name>
				<interior color="e5f6f7" />
				<outline color="000080" />
				<font color="000000" name="Arial" size="8" />
				<position>295 285 367 333</position>
			</node>
			<node id="GV_LANES">
				<name>GV_LANES</name>
				<interior color="e5f6f7" />
				<outline color="000080" />
				<font color="000000" name="Arial" size="8" />
				<position>212 290 284 338</position>
			</node>
			<node id="GV_MODELYR">
				<name>GV_MODELYR</name>
				<interior color="e5f6f7" />
				<outline color="000080" />
				<font color="000000" name="Arial" size="8" />
				<position>133 273 205 321</position>
			</node>
			<node id="GV_OTVEHWGT">
				<name>GV_OTVEHWGT</name>
				<interior color="e5f6f7" />
				<outline color="000080" />
				<font color="000000" name="Arial" size="8" />
				<position>70 236 142 284</position>
			</node>
			<node id="GV_SPLIMIT">
				<name>GV_SPLIMIT</name>
				<interior color="e5f6f7" />
				<outline color="000080" />
				<font color="000000" name="Arial" size="8" />
				<position>36 184 108 232</position>
			</node>
			<node id="GV_WGTCDTR">
				<name>GV_WGTCDTR</name>
				<interior color="e5f6f7" />
				<outline color="000080" />
				<font color="000000" name="Arial" size="8" />
				<position>36 130 108 178</position>
			</node>
			<node id="OA_AGE">
				<name>OA_AGE</name>
				<interior color="e5f6f7" />
				<outline color="000080" />
				<font color="000000" name="Arial" size="8" />
				<position>70 78 142 126</position>
			</node>
			<node id="OA_BAGDEPLY">
				<name>OA_BAGDEPLY</name>
				<interior color="e5f6f7" />
				<outline color="000080" />
				<font color="000000" name="Arial" size="8" />
				<position>132 41 204 89</position>
			</node>
			<node id="OA_MAIS">
				<name>OA_MAIS</name>
				<interior color="ffff80" />
				<outline color="000080" />
				<font color="000000" name="Arial" size="8" />
				<position>233 157 305 205</position>
			</node>
			<node id="OA_MANUSE">
				<name>OA_MANUSE</name>
				<interior color="e5f6f7" />
				<outline color="000080" />
				<font color="000000" name="Arial" size="8" />
				<position>212 24 284 72</position>
			</node>
			<node id="OA_SEX">
				<name>OA_SEX</name>
				<interior color="e5f6f7" />
				<outline color="000080" />
				<font color="000000" name="Arial" size="8" />
				<position>295 29 367 77</position>
			</node>
			<node id="VE_GAD1">
				<name>VE_GAD1</name>
				<interior color="e5f6f7" />
				<outline color="000080" />
				<font color="000000" name="Arial" size="8" />
				<position>368 57 440 105</position>
			</node>
			<node id="VE_PDOF_TR">
				<name>VE_PDOF_TR</name>
				<interior color="e5f6f7" />
				<outline color="000080" />
				<font color="000000" name="Arial" size="8" />
				<position>417 103 489 151</position>
			</node>
		</genie>
	</extensions>
</smile>
