<?xml version="1.0" encoding="ISO-8859-1"?>
<!-- This network was created in GeNIe Academic, which can be used for educational and research purposes only -->
<smile version="1.0" id="Unnamed" numsamples="10000" discsamples="10000">
	<nodes>
		<cpt id="OA_MAIS">
			<state id="State0" />
			<state id="State1" />
			<state id="State2" />
			<state id="State3" />
			<state id="State4" />
			<state id="State5" />
			<state id="State6" />
			<probabilities>0.3794083923165286 0.4587877644050091 0.07971984871335024 0.05039279950820105 0.01575534176487009 0.01138344148590154 0.004552411806139331</probabilities>
		</cpt>
		<cpt id="GV_CURBWGT">
			<state id="s1_below_1360" />
			<state id="s2_1360_1530" />
			<state id="s3_1530_1830" />
			<state id="s4_1830_up" />
			<parents>OA_MAIS</parents>
			<probabilities>0.2277713757085411 0.232777670570859 0.2547104424066626 0.2847405113139372 0.257124646541772 0.2446381247210083 0.2537838235374101 0.2444534051998095 0.2659887562335209 0.2600250766394955 0.2422262298690204 0.2317599372579631 0.2874416978648536 0.2487132972269576 0.2423401812368227 0.221504823671366 0.3180233660318347 0.2259759799169023 0.2679642542818131 0.1880363997694499 0.2883992469403104 0.356814044162526 0.2219925682514993 0.1327941406456642 0.2356938740672364 0.2695790277681464 0.3023928986814545 0.1923341994831627</probabilities>
		</cpt>
		<cpt id="GV_DVLAT">
			<state id="s1_below_n6" />
			<state id="s2_n6_0" />
			<state id="s3_0_7" />
			<state id="s4_7_up" />
			<parents>OA_MAIS</parents>
			<probabilities>0.2080956256766318 0.1485421354400438 0.4543513742328202 0.1890108646505043 0.255438766535573 0.1256511502108258 0.3678538269421918 0.2510562563114094 0.2640099225386243 0.08671908473747778 0.332427136372089 0.3168438563518088 0.2505124869711454 0.04266576865085429 0.2963408322458007 0.4104809121321997 0.2537700655257729 0.0110382527258165 0.2077237511196983 0.5274679306287123 0.3172247238740064 0.03108067593779678 0.1844578473767904 0.4672367528114064 0.4837438660630626 0.01017398532922219 0.2066092246014952 0.2994729240062199</probabilities>
		</cpt>
		<cpt id="GV_DVLONG">
			<state id="s1_below_n23" />
			<state id="s2_n23_n15" />
			<state id="s3_n15_n8" />
			<state id="s4_n8_up" />
			<parents>OA_MAIS</parents>
			<probabilities>0.1437121378152258 0.2276264436458487 0.3067952669413516 0.3218661515975738 0.2468802419787184 0.2623936025956277 0.2353147256393568 0.2554114297862971 0.4111670530591829 0.2497959354885925 0.1887521519035731 0.1502848595486515 0.5535012243308967 0.1965968116112606 0.1373262841955664 0.1125756798622765 0.4693650092977173 0.1466342574360502 0.1699283346525745 0.2140723986136579 0.4378448179383929 0.163102119040128 0.17647876809464 0.2225742949268389 0.5996005659940266 0.1730693070903884 0.06339488883539261 0.1639352380801924</probabilities>
		</cpt>
		<cpt id="GV_ENERGY">
			<state id="s1_below_2443" />
			<state id="s2_2443_4700" />
			<state id="s3_4700_7613" />
			<state id="s4_7613_up" />
			<parents>OA_MAIS</parents>
			<probabilities>0.9960086647686603 0.00286858095098299 0.0007985454256977921 0.0003242088546588572 0.9929138760749635 0.006247228482587436 0.0007948919204763355 4.400352197281608e-05 0.9588988900071006 0.03290155134971945 0.007898996183230504 0.0003005624599493875 0.9170722866668471 0.06797635141373061 0.01295444253551266 0.001996919383909676 0.874462072248241 0.09873158059990787 0.01519411379264487 0.01161223335920635 0.7408050737489633 0.1699014055782265 0.07937631854028708 0.00991720213252318 0.4170647420666759 0.4142098091192298 0.09864801288691707 0.07007743592717736</probabilities>
		</cpt>
		<cpt id="GV_LANES">
			<state id="s1_below_2" />
			<state id="s2_2_4" />
			<state id="s3_4_6" />
			<state id="s4_6_up" />
			<parents>OA_MAIS</parents>
			<probabilities>0.0260468284814603 0.5558536457954295 0.3647627319557316 0.05333679376737861 0.01782859167430296 0.5539106533795237 0.3717785972405679 0.05648215770560559 0.01454907304897179 0.5995204794421282 0.3293968177038394 0.05653362980506062 0.01055773733985914 0.6091508149586509 0.3241758221707307 0.0561156255307592 0.02789388196323443 0.7003938206562547 0.2351590048097295 0.03655329257078153 0.0241985063811429 0.6222521058436488 0.3207679773530023 0.03278141042220588 0.002759187587746773 0.681172677040188 0.25698617195218 0.05908196341988513</probabilities>
		</cpt>
		<cpt id="GV_MODELYR">
			<state id="s1_below_2001" />
			<state id="s2_2001_2003" />
			<state id="s3_2003_2005" />
			<state id="s4_2005_2007" />
			<state id="s5_2007_up" />
			<parents>OA_MAIS</parents>
			<probabilities>0.1318981129209579 0.2629912567538326 0.2232614534339639 0.1886819611789779 0.1931672157122678 0.1418105251522318 0.2712394503516878 0.234297862766125 0.1747605488702 0.1778916128597553 0.1450123761725503 0.2991341455831206 0.2241888848838432 0.153777758691405 0.1778868346690809 0.176253917590924 0.3136104022249163 0.223696514116392 0.1677402178847336 0.1186989481830343 0.1598257366220726 0.2865399846312543 0.2569924659814713 0.1617071096278511 0.1349347031373506 0.1772170643401954 0.3533204034047271 0.2148062442745478 0.1547071577221422 0.09994913025838753 0.1421224121573659 0.3022407088751384 0.2356693833981704 0.1609129691710526 0.1590545263982726</probabilities>
		</cpt>
		<cpt id="GV_OTVEHWGT">
			<state id="s1_below_1309" />
			<state id="s2_1309_1522" />
			<state id="s3_1522_1783" />
			<state id="s4_1783_up" />
			<parents>OA_MAIS</parents>
			<probabilities>0.229131752444347 0.2628018667310851 0.2274007981394978 0.2806655826850701 0.2213177098877869 0.2559615853063902 0.2208626872523628 0.30185801755346 0.1935749252198324 0.2424675803294159 0.2088932368153735 0.3550642576353781 0.1404696503870272 0.2533393417034734 0.2386196394572401 0.3675713684522591 0.1060379163333061 0.1627196891159464 0.2419599837795421 0.4892824107712054 0.0954818697773443 0.1959481667509683 0.2453119256384632 0.4632580378332243 0.06759472517515869 0.1710978899537883 0.2126275548232758 0.5486798300477771</probabilities>
		</cpt>
		<cpt id="GV_SPLIMIT">
			<state id="s1_below_32" />
			<state id="s2_32_40" />
			<state id="s3_40_49" />
			<state id="s4_49_up" />
			<parents>OA_MAIS</parents>
			<probabilities>0.242745340884255 0.3727823845116506 0.1871763228541595 0.1972959517499348 0.2062206902659192 0.3708123462879838 0.2068328199389927 0.2161341435071044 0.1918815257652788 0.3371123579109336 0.2005310602107631 0.2704750561130244 0.1542419205742366 0.2992926907972256 0.2310012692839626 0.3154641193445753 0.1944046353001948 0.2993530893000091 0.1791607755967878 0.3270814998030082 0.1511457908544455 0.2996855027708426 0.1800942808157009 0.3690744255590109 0.08331357561952057 0.2713282774230069 0.1854709589515391 0.4598871880059334</probabilities>
		</cpt>
		<cpt id="GV_WGTCDTR">
			<state id="SPassenger_Car" />
			<state id="STruck____10000_lbs__" />
			<state id="STruck____6000_lbs__" />
			<parents>OA_MAIS</parents>
			<probabilities>0.5947220824182287 0.1465891173312541 0.2586888002505174 0.6230804530074664 0.11426247321348 0.2626570737790537 0.6219375374096454 0.1182201948397739 0.2598422677505807 0.6409958059529226 0.1170382890556518 0.2419659049914257 0.7034180409624256 0.07608292221120155 0.2204990368263729 0.7268784818554281 0.06868079598157723 0.2044407221629947 0.7110240397708665 0.06291673948294189 0.2260592207461916</probabilities>
		</cpt>
		<cpt id="OA_AGE">
			<state id="s1_below_22" />
			<state id="s2_22_31" />
			<state id="s3_31_44" />
			<state id="s4_44_58" />
			<state id="s5_58_up" />
			<parents>OA_MAIS</parents>
			<probabilities>0.1914782117383342 0.2249351803029726 0.2451378643028976 0.1945887651597767 0.1438599784960189 0.1660587321589296 0.2155841497626212 0.2503802573583122 0.2114281572529877 0.1565487034671492 0.1442284955370914 0.2107684893907393 0.2363474165934131 0.2070367223585609 0.2016188761201952 0.1475032173149478 0.1720481823007201 0.2327869188480897 0.2333635243365852 0.2142981571996572 0.1507596961708377 0.1831826097563224 0.1569537131251378 0.1862338686675591 0.3228701122801431 0.1328072986144634 0.1628259953344377 0.1937163951518286 0.2111819763347481 0.299468334564522 0.09542065579907555 0.1962146405051056 0.2177892866912925 0.2649236367643793 0.2256517802401469</probabilities>
		</cpt>
		<cpt id="OA_BAGDEPLY">
			<state id="Deployed" />
			<state id="SNot_Deployed" />
			<parents>OA_MAIS</parents>
			<probabilities>0.2954883134441362 0.7045116865558638 0.5332877874349594 0.4667122125650405 0.7019349694334356 0.2980650305665644 0.7786129597960904 0.2213870402039096 0.6498425641639989 0.3501574358360011 0.6903443727965708 0.3096556272034293 0.8107680794366972 0.1892319205633029</probabilities>
		</cpt>
		<cpt id="OA_HEIGHT">
			<state id="s1_below_161" />
			<state id="s2_161_169" />
			<state id="s3_169_180" />
			<state id="s4_180_up" />
			<parents>OA_MAIS</parents>
			<probabilities>0.1495720861440357 0.2487570810714191 0.4115525165275478 0.1901183162569974 0.2079324123166961 0.2768580096184229 0.3623746663853799 0.1528349116795013 0.1783669999630605 0.274909986718527 0.3748324713614278 0.1718905419569847 0.1689224643415061 0.2559248572035895 0.4102731767530419 0.1648795017018625 0.1960333897248409 0.2438066153019954 0.4082799765809669 0.1518800183921969 0.1550334680453395 0.2642191721756131 0.3942556574744369 0.1864917023046105 0.08318443958778848 0.2496585619607301 0.5223871393386836 0.1447698591127978</probabilities>
		</cpt>
		<cpt id="OA_MANUSE">
			<state id="State0" />
			<state id="State1" />
			<parents>OA_MAIS</parents>
			<probabilities>0.07148704309487404 0.9285129569051261 0.1113822635053288 0.8886177364946712 0.1934562394591774 0.8065437605408224 0.2870626410769194 0.7129373589230806 0.2364228731902936 0.7635771268097062 0.3688186851627148 0.6311813148372852 0.3799449090745708 0.6200550909254292</probabilities>
		</cpt>
		<cpt id="OA_SEX">
			<state id="Female" />
			<state id="Male" />
			<parents>OA_MAIS</parents>
			<probabilities>0.4219261900632341 0.5780738099367659 0.5628654514782834 0.4371345485217167 0.5090539566744866 0.4909460433255133 0.4870948387340344 0.5129051612659656 0.4567337260471565 0.5432662739528435 0.4041725694323904 0.5958274305676096 0.3357884735793111 0.6642115264206889</probabilities>
		</cpt>
		<cpt id="OA_WEIGHT">
			<state id="s1_below_56" />
			<state id="s2_56_63" />
			<state id="s3_63_71" />
			<state id="s4_71_84" />
			<state id="s5_84_95" />
			<state id="s6_95_108" />
			<state id="s7_108_up" />
			<parents>OA_MAIS</parents>
			<probabilities>0.09742316299300961 0.1135521328282708 0.1810160079332526 0.2941371377523859 0.1739253225534793 0.07451667500058715 0.06542956093901456 0.1037945810567628 0.1243111203659918 0.1794652375090814 0.2668906755967992 0.1535939993040584 0.08075620229728697 0.09118818387001927 0.09496935562298184 0.1074558585084225 0.1616401461480087 0.2890899974859818 0.1698764432813841 0.07968015485494881 0.09728804409827214 0.09144629520256312 0.1064585710603347 0.1632128216010224 0.2653298432526998 0.1652664544582322 0.07960242364637456 0.1286835907787733 0.1051340852142369 0.08745965868677351 0.1639470942605027 0.2843798496859253 0.1481279835582702 0.09815416533206857 0.1127971632622226 0.1113842786940229 0.1027512891733707 0.1330822505753379 0.2694795643318668 0.1485002590572099 0.1175524151544758 0.117249943013716 0.05956509347835176 0.08035558374409675 0.1103956150009212 0.2895436041295931 0.09747665817955149 0.133196859380362 0.2294665860871237</probabilities>
		</cpt>
		<cpt id="VE_GAD1">
			<state id="Front" />
			<state id="Left" />
			<state id="Rear" />
			<state id="Right" />
			<parents>OA_MAIS</parents>
			<probabilities>0.6034928752375404 0.1499754011308322 0.09280078025102288 0.1537309433806046 0.6047956768230703 0.1488726794859164 0.1041449627972594 0.1421866808937539 0.6586850518213233 0.174961055366572 0.04963984726312257 0.1167140455489823 0.6555671192937224 0.2314404258656733 0.02427523262212308 0.08871722221848122 0.4210268625435132 0.3662756092818684 0.03645947380026499 0.1762380543743534 0.4245208203913265 0.3300090785325833 0.07237997033907333 0.1730901307370166 0.5427843485799128 0.189275434259483 0.04712929372625128 0.2208109234343529</probabilities>
		</cpt>
	</nodes>
	<extensions>
		<genie version="1.0" app="GeNIe 2.2.2414.0 ACADEMIC" name="vehicle_safety_NASS2010_2000_2012" faultnameformat="nodestate">
			<node id="GV_CURBWGT">
				<name>GV_CURBWGT</name>
				<interior color="e5f6f7" />
				<outline color="000080" />
				<font color="000000" name="Arial" size="8" />
				<position>466 167 538 215</position>
			</node>
			<node id="GV_DVLAT">
				<name>GV_DVLAT</name>
				<interior color="e5f6f7" />
				<outline color="000080" />
				<font color="000000" name="Arial" size="8" />
				<position>449 221 521 269</position>
			</node>
			<node id="GV_DVLONG">
				<name>GV_DVLONG</name>
				<interior color="e5f6f7" />
				<outline color="000080" />
				<font color="000000" name="Arial" size="8" />
				<position>403 268 475 316</position>
			</node>
			<node id="GV_ENERGY">
				<name>GV_ENERGY</name>
				<interior color="e5f6f7" />
				<outline color="000080" />
				<font color="000000" name="Arial" size="8" />
				<position>333 299 405 347</position>
			</node>
			<node id="GV_LANES">
				<name>GV_LANES</name>
				<interior color="e5f6f7" />
				<outline color="000080" />
				<font color="000000" name="Arial" size="8" />
				<position>251 310 323 358</position>
			</node>
			<node id="GV_MODELYR">
				<name>GV_MODELYR</name>
				<interior color="e5f6f7" />
				<outline color="000080" />
				<font color="000000" name="Arial" size="8" />
				<position>169 299 241 347</position>
			</node>
			<node id="GV_OTVEHWGT">
				<name>GV_OTVEHWGT</name>
				<interior color="e5f6f7" />
				<outline color="000080" />
				<font color="000000" name="Arial" size="8" />
				<position>99 268 171 316</position>
			</node>
			<node id="GV_SPLIMIT">
				<name>GV_SPLIMIT</name>
				<interior color="e5f6f7" />
				<outline color="000080" />
				<font color="000000" name="Arial" size="8" />
				<position>53 221 125 269</position>
			</node>
			<node id="GV_WGTCDTR">
				<name>GV_WGTCDTR</name>
				<interior color="e5f6f7" />
				<outline color="000080" />
				<font color="000000" name="Arial" size="8" />
				<position>36 167 108 215</position>
			</node>
			<node id="OA_AGE">
				<name>OA_AGE</name>
				<interior color="e5f6f7" />
				<outline color="000080" />
				<font color="000000" name="Arial" size="8" />
				<position>53 113 125 161</position>
			</node>
			<node id="OA_BAGDEPLY">
				<name>OA_BAGDEPLY</name>
				<interior color="e5f6f7" />
				<outline color="000080" />
				<font color="000000" name="Arial" size="8" />
				<position>99 66 171 114</position>
			</node>
			<node id="OA_HEIGHT">
				<name>OA_HEIGHT</name>
				<interior color="e5f6f7" />
				<outline color="000080" />
				<font color="000000" name="Arial" size="8" />
				<position>169 35 241 83</position>
			</node>
			<node id="OA_MAIS">
				<name>OA_MAIS</name>
				<interior color="ffff80" />
				<outline color="000080" />
				<font color="000000" name="Arial" size="8" />
				<position>251 167 323 215</position>
			</node>
			<node id="OA_MANUSE">
				<name>OA_MANUSE</name>
				<interior color="e5f6f7" />
				<outline color="000080" />
				<font color="000000" name="Arial" size="8" />
				<position>251 24 323 72</position>
			</node>
			<node id="OA_SEX">
				<name>OA_SEX</name>
				<interior color="e5f6f7" />
				<outline color="000080" />
				<font color="000000" name="Arial" size="8" />
				<position>333 35 405 83</position>
			</node>
			<node id="OA_WEIGHT">
				<name>OA_WEIGHT</name>
				<interior color="e5f6f7" />
				<outline color="000080" />
				<font color="000000" name="Arial" size="8" />
				<position>403 66 475 114</position>
			</node>
			<node id="VE_GAD1">
				<name>VE_GAD1</name>
				<interior color="e5f6f7" />
				<outline color="000080" />
				<font color="000000" name="Arial" size="8" />
				<position>449 113 521 161</position>
			</node>
		</genie>
	</extensions>
</smile>
